/*!
 * The following copyright notice may not be removed under any circumstances.
 * 
 * Copyright:
 *  (C) Copyright 1989, 1990, 1998 The Monotype Corporation PLC. All Rights
 * Reserved.
 */
Cufon.registerFont({"w":500,"face":{"font-family":"Gill Sans","font-weight":400,"font-stretch":"normal","units-per-em":"1000","panose-1":"2 0 5 3 0 0 0 0 0 0","ascent":"800","descent":"-200","x-height":"9","bbox":"-162 -911 1041 1251","underline-thickness":"50","underline-position":"-100","unicode-range":"U+0020-U+FFFD"},"glyphs":{" ":{"w":278},"!":{"d":"76,-51v0,-32,28,-60,60,-60v32,0,60,28,60,60v0,32,-28,60,-60,60v-32,0,-60,-28,-60,-60xm79,-543v0,-99,19,-148,56,-148v37,0,56,49,56,148v0,114,-19,181,-31,279v-11,84,-39,84,-50,0v-12,-97,-31,-166,-31,-279","w":271},"\"":{"d":"71,462r-23,137r0,117r88,0r0,-117r-23,-137r-42,0xm241,462r-23,137r0,117r88,0r0,-117r-23,-137r-42,0","w":354},"#":{"d":"196,-617r72,0r-41,195r194,0r41,-195r72,0r-41,195r91,0r0,69r-105,0r-36,170r141,0r0,69r-155,0r-41,195r-72,0r41,-195r-194,0r-41,195r-72,0r41,-195r-90,0r0,-69r104,0r36,-170r-140,0r0,-69r154,0xm213,-353r-36,170r194,0r36,-170r-194,0","w":584},"$":{"d":"321,-655v49,4,119,33,149,59r0,108v-32,-33,-96,-67,-149,-79r0,198v97,25,181,86,181,193v0,96,-80,180,-181,185r0,109r-82,0r0,-109v-50,-3,-113,-26,-188,-70r0,-121v65,57,95,79,188,101r0,-216v-61,-16,-107,-41,-139,-73v-32,-32,-48,-66,-48,-102v1,-108,84,-169,187,-183r0,-36r82,0r0,36xm239,-567v-46,5,-88,36,-89,82v0,39,30,69,89,89r0,-171xm321,-262r0,180v57,-13,85,-42,85,-86v0,-55,-36,-74,-85,-94","w":542},"%":{"d":"581,-143v0,-42,-37,-79,-79,-79v-41,0,-79,38,-79,79v0,42,37,79,79,79v43,0,79,-36,79,-79xm349,-143v0,-82,71,-153,153,-153v81,0,153,72,153,153v0,81,-72,153,-153,153v-82,0,-153,-70,-153,-153xm602,-691r-449,701r-75,0r449,-701r75,0xm25,-537v0,-82,71,-153,153,-153v81,0,153,72,153,153v0,81,-72,153,-153,153v-82,0,-153,-70,-153,-153xm257,-537v0,-42,-37,-79,-79,-79v-41,0,-79,38,-79,79v0,42,37,79,79,79v43,0,79,-36,79,-79","w":680},"&":{"d":"287,-669v89,0,165,62,164,148v0,33,-9,64,-29,93v-20,29,-52,58,-96,89r96,110v29,-29,54,-66,73,-110r98,0v-21,59,-58,119,-111,179r138,160r-126,0r-78,-93v-75,68,-147,102,-216,102v-90,0,-172,-73,-172,-162v0,-72,54,-139,161,-201v-51,-54,-77,-107,-77,-158v-1,-97,75,-157,175,-157xm126,-153v0,38,42,72,84,72v44,0,93,-27,146,-80r-111,-128v-42,27,-72,49,-91,69v-19,20,-28,42,-28,67xm282,-586v-40,0,-74,27,-74,65v0,37,21,75,63,116v35,-22,59,-41,71,-58v12,-17,18,-34,18,-53v1,-41,-35,-70,-78,-70","w":625},"'":{"d":"73,-462r-23,-137r0,-117r88,0r0,117r-23,137r-42,0","w":188},"(":{"d":"64,-232v0,-189,89,-361,194,-462r53,0v-192,242,-192,682,0,924r-53,0v-106,-102,-194,-272,-194,-462","w":323},")":{"d":"259,-232v0,189,-89,361,-194,462r-53,0v192,-242,192,-682,0,-924r53,0v106,102,194,272,194,462","w":323},"*":{"d":"177,-513r-128,-44v-22,-7,-52,-29,-33,-58v17,-27,45,-18,66,1r100,87v7,-6,14,-10,20,-11r-25,-130v-5,-28,4,-58,33,-58v30,0,37,28,32,58r-25,130v9,2,15,6,20,12r100,-87v21,-18,49,-28,66,0v19,30,-12,49,-34,57r-125,43v1,4,1,12,0,23r125,43v22,7,52,29,33,58v-17,27,-43,17,-66,-1r-100,-87v-7,5,-13,8,-20,10r25,131v5,29,-5,58,-33,58v-28,-1,-39,-20,-32,-58r25,-131v-8,-3,-14,-7,-19,-12r-101,88v-21,18,-50,26,-66,0v-19,-30,12,-49,34,-57r127,-44v-3,-7,-2,-14,1,-21","w":417},"+":{"d":"251,-589r82,0r0,195r195,0r0,82r-195,0r0,195r-82,0r0,-195r-195,0r0,-82r195,0r0,-195","w":584},",":{"d":"105,-123v47,1,72,45,71,97v-2,71,-53,128,-117,144r0,-19v28,-16,46,-66,36,-109v-30,-1,-49,-24,-49,-56v0,-33,25,-58,59,-57","w":219},"-":{"d":"283,-267r0,93r-243,0r0,-93r243,0","w":323},".":{"d":"49,-51v0,-32,28,-60,60,-60v32,0,60,28,60,60v0,32,-28,60,-60,60v-32,0,-60,-28,-60,-60","w":219},"\/":{"d":"8,9r196,-700r70,0r-196,700r-70,0","w":281},"0":{"d":"410,-594v76,121,76,385,0,506v-79,126,-241,126,-320,0v-76,-121,-76,-385,0,-506v79,-126,241,-126,320,0xm340,-152v40,-84,40,-294,0,-378v-43,-90,-138,-90,-180,0v-40,84,-40,294,0,378v43,90,138,90,180,0"},"1":{"d":"300,-682r0,682r-98,0r0,-682r98,0"},"2":{"d":"209,-691v121,-2,208,91,208,213v0,53,-16,108,-47,162v-31,54,-86,128,-165,223r261,0r0,93r-432,0r0,-7v109,-132,183,-225,218,-283v34,-56,67,-97,67,-177v0,-71,-48,-129,-117,-128v-55,0,-106,31,-154,92r0,-123v54,-43,108,-65,161,-65"},"3":{"d":"315,-496v1,-65,-50,-103,-118,-102v-34,0,-73,10,-116,29r0,-93v39,-19,83,-29,131,-29v115,-2,202,67,201,178v-1,84,-29,120,-87,153v62,17,97,85,98,162v1,121,-92,210,-215,207v-46,0,-94,-13,-145,-39r0,-106v51,35,102,52,152,52v66,1,111,-43,110,-109v-1,-76,-61,-121,-146,-114r0,-90v80,1,134,-28,135,-99"},"4":{"d":"398,-691r0,379r73,0r0,88r-73,0r0,224r-98,0r0,-224r-289,0r0,-45r345,-422r42,0xm298,-506r-156,194r158,0r0,-194r-2,0"},"5":{"d":"340,-207v-1,-102,-114,-156,-239,-120r0,-355r303,0r0,88r-214,0r0,171v142,-13,248,82,248,214v0,125,-97,218,-223,218v-55,0,-110,-14,-165,-42r0,-101v49,33,99,50,149,50v72,0,142,-55,141,-123"},"6":{"d":"264,9v-133,0,-220,-105,-220,-242v0,-87,24,-170,71,-250v47,-80,115,-149,202,-208r59,75v-89,49,-179,149,-209,250v36,-19,72,-28,107,-28v108,-2,191,90,191,199v0,107,-94,204,-201,204xm367,-196v0,-79,-86,-126,-167,-98v-15,5,-33,15,-54,29v-26,96,31,181,112,181v65,0,109,-47,109,-112"},"7":{"d":"490,-682r-309,691r-87,-38r250,-560r-295,0r0,-93r441,0"},"8":{"d":"373,-348v56,28,94,86,95,164v2,111,-102,193,-216,193v-116,0,-220,-83,-220,-194v0,-71,32,-125,97,-163v-54,-39,-81,-88,-81,-147v0,-112,95,-196,209,-196v112,0,201,87,201,198v0,59,-28,108,-85,145xm253,-393v56,0,107,-48,107,-102v0,-58,-46,-103,-105,-103v-63,0,-109,39,-109,101v0,55,52,104,107,104xm250,-84v70,0,119,-44,120,-108v1,-64,-52,-108,-118,-108v-69,0,-122,42,-122,108v0,64,54,108,120,108"},"9":{"d":"244,-691v129,0,220,115,217,249v-4,190,-138,374,-274,451r-60,-72v94,-60,181,-148,208,-256v-32,19,-67,29,-106,29v-106,3,-193,-92,-193,-199v0,-108,94,-202,208,-202xm246,-598v-63,0,-112,46,-112,108v0,59,56,107,116,107v35,0,70,-12,105,-37v3,-16,5,-34,5,-55v2,-63,-52,-123,-114,-123"},":":{"d":"109,111v17,0,31,-6,43,-18v11,-11,17,-25,17,-42v0,-17,-6,-31,-18,-43v-11,-11,-25,-17,-42,-17v-17,0,-31,6,-43,18v-11,11,-17,25,-17,42v0,17,6,31,18,43v11,11,25,17,42,17xm109,-236v17,0,31,-6,43,-18v11,-11,17,-25,17,-42v0,-17,-6,-31,-18,-43v-11,-11,-25,-17,-42,-17v-17,0,-31,6,-43,18v-11,11,-17,25,-17,42v0,17,6,31,18,43v11,11,25,17,42,17","w":219},";":{"d":"61,1005r0,19v19,16,30,32,35,48v5,15,6,35,5,59v-16,2,-29,8,-39,19v-9,11,-14,24,-14,40v0,19,6,34,17,45v11,11,26,16,43,16v20,0,36,-9,49,-27v12,-18,18,-40,18,-66v0,-37,-10,-70,-30,-97v-19,-27,-47,-45,-84,-56xm109,-236v17,0,31,-6,43,-18v11,-11,17,-25,17,-42v0,-17,-6,-31,-18,-43v-11,-11,-25,-17,-42,-17v-17,0,-31,6,-43,18v-11,11,-17,25,-17,42v0,17,6,31,18,43v11,11,25,17,42,17","w":219},"<":{"d":"55,-313r0,-82r474,-202r0,87r-376,156r376,156r0,87","w":584},"=":{"d":"56,503r472,0r0,-82r-472,0r0,82xm56,285r472,0r0,-82r-472,0r0,82","w":584},">":{"d":"529,-313r-474,202r0,-87r376,-156r-376,-156r0,-87r474,202r0,82","w":584},"?":{"d":"94,-51v0,-32,28,-60,60,-60v32,0,60,28,60,60v0,32,-28,60,-60,60v-32,0,-60,-28,-60,-60xm192,-534v1,-39,-27,-68,-66,-67v-7,0,-22,2,-44,6r47,-96v97,-6,160,62,161,145v1,74,-48,158,-81,204v-30,42,-75,106,-70,167v-72,-33,-72,-117,-31,-185r56,-92v19,-29,28,-57,28,-82","w":333},"@":{"d":"549,138v157,0,279,-57,342,-147r90,0v-89,146,-233,219,-433,219v-292,0,-496,-157,-494,-439v1,-169,68,-297,160,-385v70,-66,187,-115,323,-115v231,0,422,157,419,381v-1,128,-71,243,-151,300v-46,33,-92,50,-141,50v-65,0,-97,-27,-97,-82v-47,54,-96,81,-148,81v-108,1,-179,-105,-179,-221v0,-140,123,-309,254,-309v62,0,111,30,147,90r17,-76r88,0r-82,377v-16,67,34,70,78,42v73,-46,140,-132,141,-253v2,-181,-161,-309,-350,-309v-231,0,-406,187,-406,421v0,245,168,375,422,375xm500,-458v-94,0,-169,139,-169,245v0,77,38,141,108,142v93,1,174,-140,174,-245v0,-80,-39,-142,-113,-142","w":1010},"A":{"d":"362,-686r305,686r-100,0r-91,-201r-290,0r-86,201r-100,0r293,-686r69,0xm326,-536r-102,247r212,0","w":667},"B":{"d":"543,-182v0,113,-98,182,-234,182r-234,0r0,-682r198,0v122,-4,210,68,210,174v0,69,-35,118,-104,146r0,2v93,16,164,77,164,178xm173,-594r0,204r65,0v96,0,144,-36,144,-109v0,-63,-40,-95,-119,-95r-90,0xm442,-196v0,-74,-64,-106,-151,-106r-118,0r0,214r123,0v90,2,146,-35,146,-108","w":563},"C":{"d":"48,-331v-4,-207,164,-360,374,-360v67,0,145,19,234,56r0,105v-81,-47,-160,-71,-235,-71v-151,0,-272,113,-272,261v0,154,118,259,276,259v79,0,159,-26,238,-77r0,107v-120,64,-281,82,-411,27v-91,-38,-147,-107,-182,-193v-15,-39,-22,-77,-22,-114","w":708},"D":{"d":"76,0r0,-682r265,0v179,1,293,89,341,219v87,239,-95,463,-340,463r-266,0xm596,-282v39,-186,-83,-317,-271,-312r-151,0r0,506v95,-2,198,8,269,-18v83,-30,135,-92,153,-176","w":750},"E":{"d":"462,-682r0,88r-289,0r0,206r279,0r0,88r-279,0r0,212r298,0r0,88r-396,0r0,-682r387,0"},"F":{"d":"440,-682r0,88r-266,0r0,189r266,0r0,88r-266,0r0,317r-98,0r0,-682r364,0","w":469},"G":{"d":"151,-340v0,152,121,262,276,259v42,0,91,-9,148,-27r0,-140r-131,0r0,-88r229,0r0,289v-85,37,-171,56,-260,56v-202,0,-363,-147,-363,-346v0,-199,165,-359,366,-354v107,2,151,20,243,58r0,99v-81,-45,-163,-67,-245,-67v-144,0,-263,116,-263,261","w":740},"H":{"d":"653,-682r0,682r-98,0r0,-297r-382,0r0,297r-98,0r0,-682r98,0r0,297r382,0r0,-297r98,0","w":729},"I":{"d":"174,682r0,-682r-98,0r0,682r98,0","w":250},"J":{"d":"-37,137v107,-2,113,-46,113,-158r0,-661r98,0r0,690v1,143,-68,237,-218,220r-18,-91r25,0","w":250},"K":{"d":"285,-359r370,359r-135,0r-347,-337r0,337r-98,0r0,-682r98,0r0,312r287,-312r122,0","w":656},"L":{"d":"172,-682r0,594r308,0r0,88r-406,0r0,-682r98,0","w":490},"M":{"d":"709,-682r0,682r-98,0r0,-531r-2,0r-210,264r-16,0r-210,-264r-2,0r0,531r-98,0r0,-682r92,0r226,280r227,-280r91,0","w":781},"N":{"d":"706,-682r0,682r-84,0r-456,-525r0,525r-92,0r0,-682r78,0r462,528r0,-528r92,0","w":781},"O":{"d":"409,9v-205,0,-364,-155,-364,-350v0,-197,161,-350,366,-350v208,0,369,151,367,350v0,96,-34,178,-101,247v-67,69,-157,103,-268,103xm411,-601v-148,0,-265,113,-265,260v0,147,117,260,265,260v149,0,266,-113,266,-260v0,-148,-117,-260,-266,-260","w":823},"P":{"d":"500,-486v0,124,-93,194,-230,191r-102,0r0,295r-98,0r0,-682r213,0v133,-3,217,74,217,196xm399,-490v-1,-65,-42,-104,-116,-104r-115,0r0,211r111,0v70,1,121,-39,120,-107","w":510},"Q":{"d":"780,-339v0,173,-134,313,-284,340v62,26,112,43,148,50v36,7,72,7,107,-2r3,3r-88,87v-109,-8,-220,-54,-335,-139v-157,-26,-286,-164,-286,-341v0,-207,164,-350,376,-350v198,0,359,155,359,352xm679,-338v0,-146,-115,-265,-262,-263v-147,2,-235,78,-263,194v-45,185,80,326,265,326v144,0,260,-117,260,-257","w":823},"R":{"d":"473,-491v-1,86,-47,141,-114,167v66,44,110,122,152,189v18,29,49,74,93,135r-117,0v-52,-78,-135,-222,-190,-266v-36,-28,-67,-32,-122,-30r0,296r-98,0r0,-682r172,0v130,-2,224,68,224,191xm238,-384v87,2,134,-36,134,-111v0,-69,-46,-103,-134,-103r-63,0r0,214r63,0","w":604},"S":{"d":"40,-509v-3,-114,89,-184,207,-182v53,0,104,16,152,48r0,111v-50,-47,-103,-71,-160,-71v-56,0,-108,29,-108,81v0,83,88,102,147,140v72,46,146,93,148,206v2,106,-84,185,-191,185v-71,0,-135,-21,-191,-63r0,-124v51,66,111,99,180,99v61,0,111,-36,111,-86v0,-63,-58,-101,-104,-129v-81,-50,-188,-93,-191,-215","w":458},"T":{"d":"587,-682r0,88r-236,0r0,594r-98,0r0,-594r-236,0r0,-88r570,0","w":604},"U":{"d":"347,-81v134,0,203,-56,203,-204r0,-397r98,0r0,414v-1,179,-114,279,-303,277v-159,-1,-284,-98,-284,-267r0,-424r98,0r0,403v1,72,7,105,41,140v38,39,88,58,147,58","w":708},"V":{"d":"604,-682r-289,688r-20,0r-295,-688r98,0r205,479r204,-479r97,0","w":604},"W":{"d":"1041,-682r-277,688r-19,0r-224,-558r-226,558r-19,0r-276,-688r98,0r188,470r189,-470r93,0r190,470r186,-470r97,0","w":1042},"X":{"d":"687,-682r-272,329r291,353r-118,0r-232,-282r-235,282r-119,0r294,-353r-273,-329r119,0r214,260r213,-260r118,0","w":708},"Y":{"d":"301,-447r185,-235r118,0r-253,322r0,360r-98,0r0,-361r-253,-321r118,0","w":604},"Z":{"d":"450,-594r-407,0r0,-88r588,0r-434,594r434,0r0,88r-615,0","w":646},"[":{"d":"319,-682r0,80r-137,0r0,743r137,0r0,80r-233,0r0,-903r233,0","w":333},"\\":{"d":"274,9r-70,0r-196,-700r70,0","w":281},"]":{"d":"14,221r0,-80r137,0r0,-743r-137,0r0,-80r233,0r0,903r-233,0","w":333},"^":{"d":"116,-291r-90,0r173,-391r71,0r173,391r-89,0r-120,-292","w":469},"_":{"d":"-6,75r512,0r0,50r-512,0r0,-50"},"`":{"d":"160,-654r67,147r-55,0r-112,-147r100,0","w":333},"a":{"d":"184,-458v95,0,163,51,163,148r0,231v0,15,6,23,17,23v10,0,26,-8,47,-24r0,54v-35,23,-64,35,-86,35v-38,0,-61,-15,-68,-46v-39,31,-79,46,-121,46v-78,0,-135,-82,-100,-157v15,-32,26,-42,59,-60v52,-28,105,-41,163,-63v5,-66,-18,-104,-81,-103v-53,0,-101,25,-142,74r0,-97v35,-41,84,-61,149,-61xm116,-117v-1,37,27,64,64,63v26,0,52,-12,78,-37r0,-131v-47,16,-82,31,-106,46v-24,15,-36,35,-36,59","w":427},"b":{"d":"466,-234v0,150,-90,244,-240,243v-64,0,-120,-11,-167,-34r0,-657r89,0r0,265v38,-27,79,-41,124,-41v115,-1,194,103,194,224xm375,-221v0,-86,-45,-157,-125,-157v-34,0,-68,15,-102,46r0,243v31,9,61,14,90,14v80,1,137,-64,137,-146"},"c":{"d":"41,-216v0,-142,84,-243,222,-242v40,0,83,10,130,31r0,95v-44,-29,-85,-44,-124,-44v-83,-1,-137,66,-137,152v0,91,60,150,152,149v35,0,74,-10,119,-30r0,88v-37,17,-82,26,-134,26v-130,2,-228,-95,-228,-225","w":438},"d":{"d":"44,-235v0,-162,156,-268,318,-205r0,-242r89,0r0,682r-189,0v-135,1,-218,-96,-218,-235xm279,-378v-88,-1,-144,66,-144,156v0,98,46,147,137,147r90,0r0,-286v-28,-11,-56,-17,-83,-17","w":510},"e":{"d":"41,-230v0,-130,84,-229,210,-228v134,2,197,99,195,247r-316,0v14,90,64,135,151,135v49,0,102,-18,157,-54r0,86v-53,35,-113,53,-179,53v-131,0,-218,-111,-218,-239xm358,-270v-2,-65,-40,-111,-105,-111v-68,0,-108,37,-121,111r226,0","w":479},"f":{"d":"256,-603v-87,-3,-99,64,-95,154r81,0r0,80r-81,0r0,369r-89,0r0,-369r-63,0r0,-80r63,0v-3,-94,11,-155,57,-199v43,-41,98,-53,167,-34r0,87v-13,-5,-27,-8,-40,-8","w":250},"g":{"d":"40,-294v0,-103,85,-155,196,-155r185,0r0,69r-92,0v45,47,61,91,35,153v-20,47,-48,71,-102,83r-78,18v-21,5,-32,15,-32,30v0,12,10,22,32,31v22,9,57,18,105,27v87,17,130,59,130,125v0,102,-96,143,-212,143v-104,0,-207,-46,-207,-136v0,-76,44,-107,113,-124v-30,-19,-45,-38,-45,-57v2,-36,37,-56,71,-64r0,-2v-58,-25,-99,-64,-99,-141xm210,-209v49,0,86,-35,86,-84v0,-43,-43,-79,-87,-79v-46,0,-89,37,-89,81v0,50,39,82,90,82xm209,159v64,0,122,-14,124,-65v2,-38,-49,-59,-84,-66v-70,-14,-165,-4,-165,62v0,46,42,69,125,69","w":427},"h":{"d":"350,-278v1,-61,-31,-109,-88,-109v-36,0,-73,22,-112,65r0,322r-89,0r0,-682r89,0r0,292r2,0v36,-45,81,-68,134,-68v99,1,153,74,153,183r0,275r-89,0r0,-278"},"i":{"d":"154,-449r0,449r-89,0r0,-449r89,0xm110,-638v29,0,53,24,53,53v0,29,-24,53,-53,53v-29,0,-53,-24,-53,-53v0,-29,24,-53,53,-53","w":219},"j":{"d":"150,-449r0,508v0,94,-28,137,-89,171r-67,-66v45,-18,67,-51,67,-98r0,-515r89,0xm106,-638v29,0,53,24,53,53v0,29,-24,53,-53,53v-29,0,-53,-24,-53,-53v0,-29,24,-53,53,-53","w":219},"k":{"d":"151,-682r0,682r-89,0r0,-682r89,0xm460,-449r-192,220r232,229r-120,0r-225,-229r199,-220r106,0","w":479},"l":{"d":"154,-682r0,682r-89,0r0,-682r89,0","w":219},"m":{"d":"260,-383v-57,0,-80,21,-112,57r0,326r-89,0r0,-449r89,0r0,59v45,-45,89,-68,131,-68v59,0,103,27,134,81v48,-54,98,-81,150,-81v95,0,149,77,149,176r0,282r-89,0r0,-278v2,-61,-37,-105,-93,-105v-29,-1,-62,18,-100,57r0,326r-89,0r0,-279v1,-61,-28,-104,-81,-104","w":771},"n":{"d":"350,-278v1,-61,-31,-109,-88,-109v-36,0,-73,22,-112,65r0,322r-89,0r0,-449r89,0r0,59r2,0v36,-45,81,-68,134,-68v97,1,153,74,153,181r0,277r-89,0r0,-278"},"o":{"d":"36,-229v0,-128,108,-229,237,-229v136,0,243,96,243,229v0,140,-102,238,-243,238v-135,0,-237,-102,-237,-238xm425,-228v0,-86,-66,-150,-153,-150v-83,0,-145,65,-145,149v0,91,57,158,145,158v95,0,153,-62,153,-157","w":552},"p":{"d":"464,-221v3,163,-157,279,-318,210r0,241r-89,0r0,-679r154,0v158,-1,250,75,253,228xm373,-222v0,-95,-51,-148,-146,-147r-81,0r0,278v28,13,56,20,84,20v82,2,143,-68,143,-151"},"q":{"d":"36,-221v4,-145,90,-228,243,-228r164,0r0,679r-89,0r0,-237v-170,60,-322,-51,-318,-214xm127,-222v0,84,60,158,143,156v28,0,56,-7,84,-20r0,-283r-81,0v-82,0,-146,58,-146,147"},"r":{"d":"267,-373v-65,-1,-109,68,-109,138r0,235r-89,0r0,-449r89,0r0,103r2,0v70,-123,139,-147,237,-60r-47,77v-31,-29,-58,-44,-83,-44","w":396},"s":{"d":"44,-336v0,-80,64,-123,148,-122v41,0,85,12,132,37r0,88v-47,-31,-91,-47,-130,-47v-31,-1,-58,14,-59,41v0,10,9,22,25,35v16,13,45,31,84,55v38,24,63,47,78,65v15,18,23,38,23,61v1,80,-67,132,-148,132v-51,0,-103,-14,-156,-41r0,-96v57,39,106,59,147,59v34,0,66,-17,66,-51v0,-13,-11,-28,-33,-43v-47,-34,-104,-52,-144,-97v-21,-24,-33,-49,-33,-76","w":385},"t":{"d":"224,9v-90,2,-146,-55,-146,-141r0,-237r-78,0r0,-10r167,-163r0,93r142,0r0,80r-142,0r0,230v-2,43,28,68,64,68v31,0,65,-11,101,-33r0,83v-37,20,-73,30,-108,30","w":333},"u":{"d":"215,9v-98,0,-155,-75,-155,-179r0,-279r89,0r0,285v0,66,31,99,92,99v41,0,77,-21,107,-63r0,-321r89,0r0,449r-89,0r0,-57v-30,33,-79,66,-133,66"},"v":{"d":"206,9r-203,-458r97,0r121,276r118,-276r95,0r-198,458r-30,0","w":438},"w":{"d":"393,-449r114,272r117,-272r95,0r-198,458r-28,0r-133,-314r-132,314r-28,0r-200,-458r95,0r118,272r114,-272r66,0","w":719},"x":{"d":"487,-449r-185,221r198,228r-114,0r-141,-161r-133,161r-112,0r189,-228r-189,-221r112,0r133,154r128,-154r114,0"},"y":{"d":"438,-449r-318,679r-99,0r153,-326r-174,-353r101,0r121,253r116,-253r100,0","w":438},"z":{"d":"404,-449r-239,369r240,0r0,80r-394,0r238,-369r-228,0r0,-80r383,0","w":417},"{":{"d":"129,-56v-2,-98,-12,-160,-101,-163r0,-80v89,-2,99,-65,101,-163r0,-88v1,-115,31,-177,142,-178r39,0r0,76v-82,-1,-101,14,-99,101r0,72v-1,127,-19,182,-102,220v83,37,101,94,102,220r0,72v-1,87,16,102,99,101r0,76r-39,0v-111,-1,-141,-63,-142,-178r0,-88","w":333},"|":{"d":"92,250r0,-1000r76,0r0,1000r-76,0","w":260},"}":{"d":"204,-462v2,98,12,160,101,163r0,80v-89,2,-99,65,-101,163r0,88v-1,115,-31,177,-142,178r-39,0r0,-76v82,1,101,-14,99,-101r0,-72v1,-127,19,-182,102,-220v-83,-37,-101,-94,-102,-220r0,-72v1,-87,-16,-102,-99,-101r0,-76r39,0v111,1,141,63,142,178r0,88","w":333},"~":{"d":"414,-189v-45,0,-205,-76,-247,-76v-37,0,-84,22,-142,67r0,-83v51,-43,100,-64,149,-64v46,0,203,76,246,76v39,0,85,-22,140,-67r0,83v-50,43,-99,64,-146,64","w":584},"\u00a0":{"w":278},"\u00a1":{"d":"75,-448v0,-32,28,-60,60,-60v32,0,60,28,60,60v0,32,-28,60,-60,60v-32,0,-60,-28,-60,-60xm136,192v-37,0,-56,-49,-56,-148v0,-113,19,-182,31,-279v11,-84,39,-84,50,0v12,96,31,166,31,279v0,99,-19,148,-56,148","w":271},"\u00a2":{"d":"38,-216v-2,-154,103,-262,265,-239r59,-165r46,0r-63,175v29,12,44,18,45,19r0,94v-21,-17,-46,-29,-73,-36r-102,281v67,24,134,11,185,-18r0,86v-77,28,-148,34,-215,19r-69,190r-47,0r77,-209v-60,-33,-108,-108,-108,-197xm274,-375v-135,-18,-195,186,-96,266","w":438},"\u00a3":{"d":"391,9v-30,1,-131,-15,-170,-15v-57,0,-111,5,-162,15r79,-295r-72,0r0,-88r95,0v30,-105,67,-201,133,-267v34,-34,88,-59,155,-46r52,98v-24,-1,-40,-9,-64,-9v-41,0,-76,17,-104,52v-28,35,-53,93,-76,172r76,0r0,88r-102,0r-50,189v67,-9,161,13,214,13v45,0,78,-7,101,-20r0,95v-30,10,-67,18,-105,18","w":531},"\u00a4":{"d":"448,-226r67,67r-57,57r-67,-67v-66,47,-163,47,-230,0r-67,67r-57,-57r67,-67v-47,-65,-47,-164,0,-230r-67,-67r57,-57r67,67v64,-47,163,-47,230,0r67,-67r57,57r-67,67v47,61,47,168,0,230xm403,-341v0,-68,-59,-127,-127,-127v-68,0,-127,59,-127,127v0,68,59,127,127,127v68,0,127,-59,127,-127","w":552},"\u00a5":{"d":"233,0r0,-159r-203,0r0,-67r203,0r0,-70r-203,0r0,-73r167,0r-198,-347r98,0r180,322r173,-322r103,0r-196,347r165,0r0,73r-200,0r0,70r200,0r0,67r-200,0r0,159r-89,0","w":552},"\u00a6":{"d":"92,175r0,-350r76,0r0,350r-76,0xm92,-325r0,-350r76,0r0,350r-76,0","w":260},"\u00a7":{"d":"219,-627v-42,0,-69,26,-69,68v2,59,44,102,79,135v63,62,145,121,145,241v0,51,-25,102,-74,151v23,35,35,72,35,113v2,84,-74,149,-159,149v-58,0,-113,-36,-113,-91v0,-32,25,-61,56,-60v30,0,54,29,43,61v-7,20,2,26,23,26v37,1,74,-35,72,-71v-5,-82,-70,-125,-113,-173v-51,-58,-112,-114,-112,-218v0,-56,22,-104,66,-144v-55,-84,-17,-200,52,-234v70,-34,191,-12,190,68v1,31,-21,55,-52,55v-22,0,-40,-19,-40,-39v0,-27,-4,-36,-29,-37xm140,-384v-37,36,-39,83,-16,133v28,61,96,113,135,161v43,-41,47,-104,16,-156v-19,-32,-113,-114,-135,-138","w":406},"\u00a8":{"d":"27,-582v0,-25,21,-46,47,-46v26,0,46,20,46,46v0,26,-21,47,-46,47v-26,0,-47,-21,-47,-47xm213,-582v0,-25,21,-46,47,-46v26,0,46,20,46,46v0,26,-21,47,-46,47v-26,0,-47,-21,-47,-47","w":333},"\u00a9":{"d":"370,-206v61,0,107,-41,118,-94r60,18v-18,82,-85,133,-182,133v-120,0,-189,-90,-189,-216v0,-119,79,-201,197,-201v88,0,147,45,167,115r-58,14v-20,-50,-58,-75,-114,-75v-81,0,-125,71,-125,157v0,87,43,149,126,149xm369,-728v199,0,369,169,369,368v0,199,-171,369,-369,369v-199,0,-368,-171,-368,-369v0,-199,169,-368,368,-368xm369,-52v165,0,308,-142,308,-308v0,-165,-142,-307,-308,-307v-165,0,-307,141,-307,307v0,166,142,308,307,308","w":740},"\u00aa":{"d":"20,-652v51,-62,211,-54,211,50r0,126v0,15,2,22,5,22v5,0,18,-7,37,-20r0,42v-25,15,-46,23,-63,23v-25,0,-41,-8,-47,-23v-23,15,-48,23,-73,23v-40,1,-76,-30,-75,-69v0,-25,13,-46,37,-60v24,-14,61,-27,111,-40v-1,-42,-4,-56,-45,-57v-31,0,-63,17,-98,52r0,-69xm163,-471r0,-72v-30,10,-50,19,-62,26v-28,16,-21,64,18,64v14,0,29,-6,44,-18","w":281},"\u00ab":{"d":"117,225r148,-225r-88,0r-147,225r147,225r88,0xm320,225r148,-225r-88,0r-147,225r147,225r88,0","w":490},"\u00ac":{"d":"528,-126r-82,0r0,-213r-391,0r0,-82r473,0r0,295","w":584},"\u00ad":{"d":"283,-267r0,93r-243,0r0,-93r243,0","w":323},"\u00ae":{"d":"514,-448v2,65,-50,112,-113,114r0,2v45,19,62,51,92,99r48,77r-78,0v-25,-43,-71,-128,-94,-148v-22,-19,-57,-21,-97,-20r0,168r-64,0r0,-396r175,0v77,-4,129,42,131,104xm446,-439v0,-38,-31,-60,-71,-59r-103,0r0,119r92,0v55,0,82,-20,82,-60xm369,-52v165,0,308,-142,308,-308v0,-165,-142,-307,-308,-307v-165,0,-307,141,-307,307v0,166,142,308,307,308xm369,-728v199,0,369,169,369,368v0,199,-171,369,-369,369v-199,0,-368,-171,-368,-369v0,-199,169,-368,368,-368","w":740},"\u00af":{"d":"332,-615r0,73r-331,0r0,-73r331,0","w":333},"\u00b0":{"d":"280,-593v0,-45,-38,-82,-83,-82v-46,0,-82,36,-82,82v0,45,37,83,82,83v46,0,83,-37,83,-83xm62,-593v0,-73,62,-135,135,-135v73,0,135,62,135,135v0,73,-62,135,-135,135v-73,0,-135,-62,-135,-135","w":396},"\u00b1":{"d":"56,706r472,0r0,-82r-472,0r0,82xm251,589r82,0r0,-195r195,0r0,-82r-195,0r0,-195r-82,0r0,195r-195,0r0,82r195,0r0,195","w":584},"\u00b2":{"d":"137,-691v71,-2,130,44,129,112v0,49,-41,113,-122,193r151,0r0,54r-267,0r0,-7v60,-61,103,-110,129,-145v26,-35,39,-65,39,-91v0,-36,-27,-61,-64,-60v-37,0,-69,19,-95,58r0,-78v33,-24,66,-36,100,-36","w":323},"\u00b3":{"d":"195,-589v0,-33,-28,-51,-64,-50v-20,0,-45,7,-75,20r0,-55v79,-37,209,-15,207,77v0,36,-16,62,-47,78v36,13,54,41,54,83v0,67,-61,111,-133,109v-29,0,-60,-7,-91,-22r0,-63v33,19,65,29,94,29v34,1,58,-19,58,-51v0,-39,-28,-57,-84,-55r0,-52v48,6,81,-10,81,-48","w":323},"\u00b4":{"d":"178,-654r100,0r-112,147r-55,0","w":333},"\u00b6":{"d":"1,-514v0,-134,90,-202,230,-202r309,0r0,80r-70,0r0,835r-83,0r0,-835r-109,0r0,835r-80,0r0,-510v-118,-5,-198,-82,-197,-203","w":542},"\u00b7":{"d":"130,-183v17,0,31,-6,43,-18v11,-11,17,-25,17,-42v0,-17,-6,-31,-18,-43v-11,-11,-25,-17,-42,-17v-17,0,-31,6,-43,18v-11,11,-17,25,-17,42v0,17,6,31,18,43v11,11,25,17,42,17","w":260},"\u00b8":{"d":"185,87v-2,-22,-29,-29,-58,-25r25,-70r57,0r-7,24v36,10,54,31,54,63v0,77,-71,102,-155,89r0,-55v38,5,81,2,84,-26","w":333},"\u00b9":{"d":"196,-687r0,355r-69,0r0,-355r69,0","w":323},"\u00ba":{"d":"182,-691v86,0,160,58,160,141v0,83,-74,141,-160,141v-86,0,-159,-58,-159,-141v0,-83,74,-141,159,-141xm183,-463v52,0,90,-35,90,-87v0,-52,-38,-87,-90,-87v-53,0,-91,35,-91,87v0,52,38,87,91,87","w":365},"\u00bb":{"d":"170,225r-148,225r88,0r147,-225r-147,-225r-88,0xm373,225r-148,225r88,0r147,-225r-147,-225r-88,0","w":490},"\u00bc":{"d":"195,-687r0,355r-69,0r0,-355r69,0xm605,-691r-455,718r-67,0r455,-718r67,0xm635,-360r0,196r45,0r0,49r-45,0r0,115r-68,0r0,-115r-170,0r0,-25r205,-220r33,0xm567,-248r-78,84r78,0r0,-84","w":844},"\u00bd":{"d":"605,691r-455,-718r-67,0r455,718r67,0xm195,687r0,-355r-69,0r0,355r69,0xm732,718r0,-54r-267,0r0,7v60,61,103,110,129,145v26,35,39,65,39,91v0,18,-6,33,-18,44v-11,11,-27,16,-46,16v-37,0,-69,-19,-95,-58r0,78v33,24,66,36,100,36v38,0,69,-11,93,-32v24,-21,36,-47,36,-80v0,-49,-41,-113,-122,-193r151,0","w":844},"\u00be":{"d":"214,-589v0,-33,-28,-51,-64,-50v-20,0,-45,7,-75,20r0,-55v79,-37,209,-15,207,77v0,36,-16,62,-47,78v36,13,54,41,54,83v0,67,-61,111,-133,109v-29,0,-60,-7,-91,-22r0,-63v33,19,65,29,94,29v34,1,58,-19,58,-51v0,-39,-28,-57,-84,-55r0,-52v48,6,81,-10,81,-48xm653,-691r-455,718r-67,0r455,-718r67,0xm683,-360r0,196r45,0r0,49r-45,0r0,115r-68,0r0,-115r-170,0r0,-25r205,-220r33,0xm615,-248r-78,84r78,0r0,-84","w":844},"\u00bf":{"d":"119,-447v0,-32,28,-60,60,-60v32,0,60,28,60,60v0,32,-28,60,-60,60v-32,0,-60,-28,-60,-60xm141,36v-1,39,27,68,66,67v7,0,22,-2,44,-6r-47,96v-97,6,-160,-62,-161,-145v-1,-74,48,-158,81,-204v30,-42,75,-106,70,-167v72,33,72,117,31,185r-56,92v-19,29,-28,57,-28,82","w":333},"\u00c0":{"d":"327,434r67,-147r-55,0r-112,147r100,0xm362,686r305,-686r-100,0r-91,201r-290,0r-86,-201r-100,0r293,686r69,0xm326,536r-102,-247r212,0","w":667},"\u00c1":{"d":"345,434r100,0r-112,-147r-55,0xm362,686r305,-686r-100,0r-91,201r-290,0r-86,-201r-100,0r293,686r69,0xm326,536r-102,-247r212,0","w":667},"\u00c2":{"d":"379,437r94,-151r-55,0r-87,87r-83,-87r-53,0r91,151r93,0xm362,686r305,-686r-100,0r-91,201r-290,0r-86,-201r-100,0r293,686r69,0xm326,536r-102,-247r212,0","w":667},"\u00c3":{"d":"362,-686r305,686r-100,0r-91,-201r-290,0r-86,201r-100,0r293,-686r69,0xm326,-536r-102,247r212,0xm265,-860v25,0,123,35,141,35v20,0,32,-13,36,-38r38,0v1,61,-26,115,-79,118v-33,2,-110,-35,-139,-35v-19,0,-31,12,-34,35r-41,0v5,-77,31,-115,78,-115","w":667},"\u00c4":{"d":"427,408v13,0,24,-4,33,-13v9,-9,13,-20,13,-33v0,-13,-5,-25,-14,-34v-9,-9,-19,-13,-32,-13v-13,0,-24,5,-33,14v-9,9,-14,20,-14,33v0,13,5,24,14,33v9,9,20,13,33,13xm241,408v13,0,24,-4,33,-13v9,-9,13,-20,13,-33v0,-13,-5,-25,-14,-34v-9,-9,-19,-13,-32,-13v-13,0,-24,5,-33,14v-9,9,-14,20,-14,33v0,13,5,24,14,33v9,9,20,13,33,13xm362,686r305,-686r-100,0r-91,201r-290,0r-86,-201r-100,0r293,686r69,0xm326,536r-102,-247r212,0","w":667},"\u00c5":{"d":"362,-686r305,686r-100,0r-91,-201r-290,0r-86,201r-100,0r293,-686r69,0xm326,-536r-102,247r212,0xm241,-818v0,-49,44,-93,93,-93v49,0,93,44,93,93v0,49,-44,93,-93,93v-49,0,-93,-44,-93,-93xm389,-818v0,-28,-27,-55,-55,-55v-28,0,-55,27,-55,55v0,28,27,55,55,55v28,0,55,-27,55,-55","w":667},"\u00c6":{"d":"851,-682r0,88r-280,0r0,205r271,0r0,88r-271,0r0,213r291,0r0,88r-389,0r0,-301r-191,0r-179,301r-101,0r404,-682r445,0xm471,-622r-139,233r141,0r0,-233r-2,0","w":896},"\u00c7":{"d":"149,-340v0,154,118,259,276,259v79,0,159,-26,238,-77r0,107v-82,41,-142,60,-267,60r-4,14v36,10,54,31,54,63v0,77,-71,102,-155,89r0,-55v38,5,81,2,84,-26v-2,-22,-29,-29,-58,-25r24,-67v-121,-17,-223,-105,-263,-198v-108,-253,88,-495,344,-495v67,0,145,19,234,56r0,105v-81,-47,-160,-71,-235,-71v-151,0,-272,113,-272,261","w":708},"\u00c8":{"d":"244,434r67,-147r-55,0r-112,147r100,0xm462,682r0,-88r-289,0r0,-206r279,0r0,-88r-279,0r0,-212r298,0r0,-88r-396,0r0,682r387,0"},"\u00c9":{"d":"262,434r100,0r-112,-147r-55,0xm462,682r0,-88r-289,0r0,-206r279,0r0,-88r-279,0r0,-212r298,0r0,-88r-396,0r0,682r387,0"},"\u00ca":{"d":"296,437r94,-151r-55,0r-87,87r-83,-87r-53,0r91,151r93,0xm462,682r0,-88r-289,0r0,-206r279,0r0,-88r-279,0r0,-212r298,0r0,-88r-396,0r0,682r387,0"},"\u00cb":{"d":"158,408v13,0,24,-4,33,-13v9,-9,13,-20,13,-33v0,-13,-5,-25,-14,-34v-9,-9,-19,-13,-32,-13v-13,0,-25,5,-34,14v-9,9,-13,20,-13,33v0,13,5,24,14,33v9,9,20,13,33,13xm344,408v13,0,24,-4,33,-13v9,-9,13,-20,13,-33v0,-13,-5,-25,-14,-34v-9,-9,-19,-13,-32,-13v-13,0,-25,5,-34,14v-9,9,-13,20,-13,33v0,13,5,24,14,33v9,9,20,13,33,13xm462,682r0,-88r-289,0r0,-206r279,0r0,-88r-279,0r0,-212r298,0r0,-88r-396,0r0,682r387,0"},"\u00cc":{"d":"119,434r67,-147r-55,0r-112,147r100,0xm174,682r0,-682r-98,0r0,682r98,0","w":250},"\u00cd":{"d":"137,434r100,0r-112,-147r-55,0xm174,682r0,-682r-98,0r0,682r98,0","w":250},"\u00ce":{"d":"171,437r94,-151r-55,0r-87,87r-83,-87r-53,0r91,151r93,0xm174,682r0,-682r-98,0r0,682r98,0","w":250},"\u00cf":{"d":"219,408v13,0,24,-4,33,-13v9,-9,13,-20,13,-33v0,-13,-5,-25,-14,-34v-9,-9,-19,-13,-32,-13v-13,0,-24,5,-33,14v-9,9,-14,20,-14,33v0,13,5,24,14,33v9,9,20,13,33,13xm33,408v13,0,24,-4,33,-13v9,-9,13,-20,13,-33v0,-13,-5,-25,-14,-34v-9,-9,-19,-13,-32,-13v-13,0,-24,5,-33,14v-9,9,-14,20,-14,33v0,13,5,24,14,33v9,9,20,13,33,13xm174,682r0,-682r-98,0r0,682r98,0","w":250},"\u00d0":{"d":"76,0r0,-297r-80,0r0,-88r80,0r0,-297r265,0v173,2,288,90,338,215v54,137,19,272,-75,366v-67,67,-154,101,-262,101r-266,0xm603,-341v-2,-155,-109,-258,-278,-253r-151,0r0,209r193,0r0,88r-193,0r0,209r158,0v155,1,273,-96,271,-253","w":750},"\u00d1":{"d":"499,423r38,0v0,-35,-7,-64,-22,-86v-15,-21,-34,-32,-57,-32v-19,0,-43,6,-72,18v-29,11,-52,17,-67,17v-19,0,-31,-12,-34,-35r-41,0v5,77,31,115,78,115v19,0,45,-6,79,-18v33,-11,54,-17,62,-17v20,0,32,13,36,38xm706,682r0,-682r-84,0r-456,525r0,-525r-92,0r0,682r78,0r462,-528r0,528r92,0","w":781},"\u00d2":{"d":"405,434r67,-147r-55,0r-112,147r100,0xm45,341v0,97,34,180,102,248v68,68,156,102,264,102v109,0,198,-34,266,-102v67,-67,101,-150,101,-248v0,-96,-34,-178,-101,-247v-67,-69,-157,-103,-268,-103v-108,0,-196,34,-263,103v-67,69,-101,151,-101,247xm146,341v0,-75,25,-137,76,-186v50,-49,113,-74,189,-74v77,0,140,25,191,74v50,49,75,111,75,186v0,75,-25,137,-76,186v-50,49,-113,74,-190,74v-76,0,-139,-25,-190,-74v-50,-49,-75,-111,-75,-186","w":823},"\u00d3":{"d":"423,434r100,0r-112,-147r-55,0xm45,341v0,97,34,180,102,248v68,68,156,102,264,102v109,0,198,-34,266,-102v67,-67,101,-150,101,-248v0,-96,-34,-178,-101,-247v-67,-69,-157,-103,-268,-103v-108,0,-196,34,-263,103v-67,69,-101,151,-101,247xm146,341v0,-75,25,-137,76,-186v50,-49,113,-74,189,-74v77,0,140,25,191,74v50,49,75,111,75,186v0,75,-25,137,-76,186v-50,49,-113,74,-190,74v-76,0,-139,-25,-190,-74v-50,-49,-75,-111,-75,-186","w":823},"\u00d4":{"d":"457,437r94,-151r-55,0r-87,87r-83,-87r-53,0r91,151r93,0xm45,341v0,97,34,180,102,248v68,68,156,102,264,102v109,0,198,-34,266,-102v67,-67,101,-150,101,-248v0,-96,-34,-178,-101,-247v-67,-69,-157,-103,-268,-103v-108,0,-196,34,-263,103v-67,69,-101,151,-101,247xm146,341v0,-75,25,-137,76,-186v50,-49,113,-74,189,-74v77,0,140,25,191,74v50,49,75,111,75,186v0,75,-25,137,-76,186v-50,49,-113,74,-190,74v-76,0,-139,-25,-190,-74v-50,-49,-75,-111,-75,-186","w":823},"\u00d5":{"d":"409,9v-205,0,-364,-155,-364,-350v0,-197,161,-350,366,-350v208,0,369,151,367,350v0,96,-34,178,-101,247v-67,69,-157,103,-268,103xm411,-601v-148,0,-265,113,-265,260v0,147,117,260,265,260v149,0,266,-113,266,-260v0,-148,-117,-260,-266,-260xm343,-860v25,0,123,35,141,35v20,0,32,-13,36,-38r38,0v1,61,-26,115,-79,118v-33,2,-110,-35,-139,-35v-19,0,-31,12,-34,35r-41,0v5,-77,31,-115,78,-115","w":823},"\u00d6":{"d":"505,408v13,0,24,-4,33,-13v9,-9,13,-20,13,-33v0,-13,-5,-25,-14,-34v-9,-9,-19,-13,-32,-13v-13,0,-24,5,-33,14v-9,9,-14,20,-14,33v0,13,5,24,14,33v9,9,20,13,33,13xm319,408v13,0,24,-4,33,-13v9,-9,13,-20,13,-33v0,-13,-5,-25,-14,-34v-9,-9,-19,-13,-32,-13v-13,0,-24,5,-33,14v-9,9,-14,20,-14,33v0,13,5,24,14,33v9,9,20,13,33,13xm45,341v0,97,34,180,102,248v68,68,156,102,264,102v109,0,198,-34,266,-102v67,-67,101,-150,101,-248v0,-96,-34,-178,-101,-247v-67,-69,-157,-103,-268,-103v-108,0,-196,34,-263,103v-67,69,-101,151,-101,247xm146,341v0,-75,25,-137,76,-186v50,-49,113,-74,189,-74v77,0,140,25,191,74v50,49,75,111,75,186v0,75,-25,137,-76,186v-50,49,-113,74,-190,74v-76,0,-139,-25,-190,-74v-50,-49,-75,-111,-75,-186","w":823},"\u00d7":{"d":"79,-200r154,-154r-154,-154r59,-59r154,154r153,-153r59,59r-153,153r153,153r-59,59r-153,-153r-154,154","w":584},"\u00d8":{"d":"411,-601v-148,0,-265,113,-265,260v0,67,23,128,70,181r342,-401v-47,-27,-96,-40,-147,-40xm669,-597v63,54,108,148,109,256v0,96,-34,178,-101,247v-67,69,-157,103,-268,103v-81,0,-151,-20,-211,-60r-47,55r-47,-33r49,-57v-72,-72,-108,-157,-108,-255v0,-197,161,-350,366,-350v81,0,150,19,209,57r51,-59r46,40xm411,-81v149,0,266,-113,266,-260v0,-72,-24,-133,-72,-182r-344,399v47,29,97,43,150,43","w":823},"\u00d9":{"d":"348,434r67,-147r-55,0r-112,147r100,0xm648,682r0,-414v0,-86,-26,-154,-77,-203v-51,-49,-127,-74,-226,-74v-79,0,-146,23,-201,68v-55,45,-83,112,-83,199r0,424r98,0r0,-403v0,-38,3,-67,9,-87v6,-20,17,-38,32,-53v39,-39,88,-58,147,-58v70,0,123,18,160,55v29,29,43,78,43,149r0,397r98,0","w":708},"\u00da":{"d":"366,434r100,0r-112,-147r-55,0xm648,682r0,-414v0,-86,-26,-154,-77,-203v-51,-49,-127,-74,-226,-74v-79,0,-146,23,-201,68v-55,45,-83,112,-83,199r0,424r98,0r0,-403v0,-38,3,-67,9,-87v6,-20,17,-38,32,-53v39,-39,88,-58,147,-58v70,0,123,18,160,55v29,29,43,78,43,149r0,397r98,0","w":708},"\u00db":{"d":"400,437r94,-151r-55,0r-87,87r-83,-87r-53,0r91,151r93,0xm648,682r0,-414v0,-86,-26,-154,-77,-203v-51,-49,-127,-74,-226,-74v-79,0,-146,23,-201,68v-55,45,-83,112,-83,199r0,424r98,0r0,-403v0,-38,3,-67,9,-87v6,-20,17,-38,32,-53v39,-39,88,-58,147,-58v70,0,123,18,160,55v29,29,43,78,43,149r0,397r98,0","w":708},"\u00dc":{"d":"262,408v13,0,24,-4,33,-13v9,-9,13,-20,13,-33v0,-13,-5,-25,-14,-34v-9,-9,-19,-13,-32,-13v-13,0,-25,5,-34,14v-9,9,-13,20,-13,33v0,13,5,24,14,33v9,9,20,13,33,13xm448,408v13,0,24,-4,33,-13v9,-9,13,-20,13,-33v0,-13,-5,-25,-14,-34v-9,-9,-19,-13,-32,-13v-13,0,-25,5,-34,14v-9,9,-13,20,-13,33v0,13,5,24,14,33v9,9,20,13,33,13xm648,682r0,-414v0,-86,-26,-154,-77,-203v-51,-49,-127,-74,-226,-74v-79,0,-146,23,-201,68v-55,45,-83,112,-83,199r0,424r98,0r0,-403v0,-38,3,-67,9,-87v6,-20,17,-38,32,-53v39,-39,88,-58,147,-58v70,0,123,18,160,55v29,29,43,78,43,149r0,397r98,0","w":708},"\u00dd":{"d":"314,434r100,0r-112,-147r-55,0xm301,447r185,235r118,0r-253,-322r0,-360r-98,0r0,361r-253,321r118,0","w":604},"\u00de":{"d":"500,-338v0,124,-93,194,-230,191r-102,0r0,147r-98,0r0,-682r98,0r0,148r115,0v133,-3,217,74,217,196xm399,-342v-1,-65,-42,-104,-116,-104r-115,0r0,211r111,0v70,1,121,-39,120,-107","w":510},"\u00df":{"d":"348,-516v1,-57,-42,-106,-98,-106v-68,0,-102,39,-102,116r0,506r-89,0r0,-517v-1,-110,79,-174,190,-174v112,0,190,58,190,165v0,73,-43,127,-99,149r0,2v78,19,127,84,127,179v0,138,-100,237,-244,196r0,-87v81,37,153,-24,153,-111v0,-92,-48,-137,-145,-134r0,-80v73,2,116,-34,117,-104"},"\u00e0":{"d":"411,80r0,-54v-35,-23,-64,-35,-86,-35v-38,0,-61,15,-68,46v-39,-31,-79,-46,-121,-46v-32,0,-58,11,-79,33v-21,21,-31,47,-31,77v0,17,3,33,10,47v7,14,14,25,22,34v7,8,20,17,37,26v17,9,31,15,40,19v9,3,23,9,44,16r79,28r0,24v0,53,-27,79,-81,79v-53,0,-101,-25,-142,-74r0,97v35,41,84,61,149,61v48,0,87,-13,118,-38v30,-25,45,-61,45,-110r0,-231v0,-15,6,-23,17,-23v10,0,26,8,47,24xm258,91r0,131v-47,-16,-83,-32,-107,-47v-23,-15,-35,-34,-35,-58v0,-19,6,-34,18,-46v12,-11,27,-17,46,-17v26,0,52,12,78,37xm187,654r67,-147r-55,0r-112,147r100,0","w":427},"\u00e1":{"d":"225,654r100,0r-112,-147r-55,0xm411,80r0,-54v-35,-23,-64,-35,-86,-35v-38,0,-61,15,-68,46v-39,-31,-79,-46,-121,-46v-32,0,-58,11,-79,33v-21,21,-31,47,-31,77v0,17,3,33,10,47v7,14,14,25,22,34v7,8,20,17,37,26v17,9,31,15,40,19v9,3,23,9,44,16r79,28r0,24v0,53,-27,79,-81,79v-53,0,-101,-25,-142,-74r0,97v35,41,84,61,149,61v48,0,87,-13,118,-38v30,-25,45,-61,45,-110r0,-231v0,-15,6,-23,17,-23v10,0,26,8,47,24xm258,91r0,131v-47,-16,-83,-32,-107,-47v-23,-15,-35,-34,-35,-58v0,-19,6,-34,18,-46v12,-11,27,-17,46,-17v26,0,52,12,78,37","w":427},"\u00e2":{"d":"239,657r94,-151r-55,0r-87,87r-83,-87r-53,0r91,151r93,0xm411,80r0,-54v-35,-23,-64,-35,-86,-35v-38,0,-61,15,-68,46v-39,-31,-79,-46,-121,-46v-32,0,-58,11,-79,33v-21,21,-31,47,-31,77v0,17,3,33,10,47v7,14,14,25,22,34v7,8,20,17,37,26v17,9,31,15,40,19v9,3,23,9,44,16r79,28r0,24v0,53,-27,79,-81,79v-53,0,-101,-25,-142,-74r0,97v35,41,84,61,149,61v48,0,87,-13,118,-38v30,-25,45,-61,45,-110r0,-231v0,-15,6,-23,17,-23v10,0,26,8,47,24xm258,91r0,131v-47,-16,-83,-32,-107,-47v-23,-15,-35,-34,-35,-58v0,-19,6,-34,18,-46v12,-11,27,-17,46,-17v26,0,52,12,78,37","w":427},"\u00e3":{"d":"184,-458v95,0,163,51,163,148r0,231v0,15,6,23,17,23v10,0,26,-8,47,-24r0,54v-35,23,-64,35,-86,35v-38,0,-61,-15,-68,-46v-39,31,-79,46,-121,46v-78,0,-135,-82,-100,-157v15,-32,26,-42,59,-60v52,-28,105,-41,163,-63v5,-66,-18,-104,-81,-103v-53,0,-101,25,-142,74r0,-97v35,-41,84,-61,149,-61xm116,-117v-1,37,27,64,64,63v26,0,52,-12,78,-37r0,-131v-47,16,-82,31,-106,46v-24,15,-36,35,-36,59xm125,-640v25,0,123,35,141,35v20,0,32,-13,36,-38r38,0v1,61,-26,115,-79,118v-33,2,-110,-35,-139,-35v-19,0,-31,12,-34,35r-41,0v5,-77,31,-115,78,-115","w":427},"\u00e4":{"d":"287,628v13,0,24,-4,33,-13v9,-9,13,-20,13,-33v0,-13,-5,-25,-14,-34v-9,-9,-19,-13,-32,-13v-13,0,-24,5,-33,14v-9,9,-14,20,-14,33v0,13,5,24,14,33v9,9,20,13,33,13xm101,628v13,0,24,-4,33,-13v9,-9,13,-20,13,-33v0,-13,-5,-25,-14,-34v-9,-9,-19,-13,-32,-13v-13,0,-24,5,-33,14v-9,9,-14,20,-14,33v0,13,5,24,14,33v9,9,20,13,33,13xm411,80r0,-54v-35,-23,-64,-35,-86,-35v-38,0,-61,15,-68,46v-39,-31,-79,-46,-121,-46v-32,0,-58,11,-79,33v-21,21,-31,47,-31,77v0,17,3,33,10,47v7,14,14,25,22,34v7,8,20,17,37,26v17,9,31,15,40,19v9,3,23,9,44,16r79,28r0,24v0,53,-27,79,-81,79v-53,0,-101,-25,-142,-74r0,97v35,41,84,61,149,61v48,0,87,-13,118,-38v30,-25,45,-61,45,-110r0,-231v0,-15,6,-23,17,-23v10,0,26,8,47,24xm258,91r0,131v-47,-16,-83,-32,-107,-47v-23,-15,-35,-34,-35,-58v0,-19,6,-34,18,-46v12,-11,27,-17,46,-17v26,0,52,12,78,37","w":427},"\u00e5":{"d":"184,-458v95,0,163,51,163,148r0,231v0,15,6,23,17,23v10,0,26,-8,47,-24r0,54v-35,23,-64,35,-86,35v-38,0,-61,-15,-68,-46v-39,31,-79,46,-121,46v-78,0,-135,-82,-100,-157v15,-32,26,-42,59,-60v52,-28,105,-41,163,-63v5,-66,-18,-104,-81,-103v-53,0,-101,25,-142,74r0,-97v35,-41,84,-61,149,-61xm116,-117v-1,37,27,64,64,63v26,0,52,-12,78,-37r0,-131v-47,16,-82,31,-106,46v-24,15,-36,35,-36,59xm101,-598v0,-49,44,-93,93,-93v49,0,93,44,93,93v0,49,-44,93,-93,93v-49,0,-93,-44,-93,-93xm249,-598v0,-28,-27,-55,-55,-55v-28,0,-55,27,-55,55v0,28,27,55,55,55v28,0,55,-27,55,-55","w":427},"\u00e6":{"d":"351,-243v-3,99,52,170,139,172v42,0,88,-19,139,-57r0,89v-44,32,-94,48,-151,48v-66,0,-128,-29,-154,-70v-57,47,-115,70,-172,70v-66,0,-118,-49,-117,-115v0,-41,17,-72,52,-95v35,-23,93,-45,175,-67v5,-73,-18,-110,-71,-110v-53,0,-102,26,-146,77r0,-107v71,-65,221,-71,279,8v72,-76,196,-79,260,0v32,39,46,91,43,157r-276,0xm539,-302v-7,-51,-30,-76,-87,-76v-48,0,-77,35,-90,76r177,0xm126,-124v-1,37,27,72,61,72v19,0,44,-9,75,-27r0,-145v-49,18,-83,34,-104,48v-21,14,-32,32,-32,52","w":667},"\u00e7":{"d":"132,-224v0,91,60,150,152,149v35,0,74,-10,119,-30r0,88v-37,17,-85,26,-142,26r-4,14v36,10,54,31,54,63v0,77,-71,102,-155,89r0,-55v38,5,81,2,84,-26v-2,-22,-29,-29,-58,-25r24,-68v-95,-21,-165,-104,-165,-217v0,-142,84,-243,222,-242v40,0,83,10,130,31r0,95v-44,-29,-85,-44,-124,-44v-83,-1,-137,66,-137,152","w":438},"\u00e8":{"d":"438,130r0,-86v-53,-35,-113,-53,-179,-53v-67,0,-120,24,-159,71v-39,47,-59,103,-59,168v0,68,20,123,59,165v39,42,89,63,151,63v61,0,109,-21,144,-63v34,-41,51,-103,51,-184r-316,0v14,-90,64,-135,151,-135v49,0,102,18,157,54xm132,270r226,0v-1,34,-11,61,-30,81v-19,20,-44,30,-75,30v-68,0,-108,-37,-121,-111xm233,654r67,-147r-55,0r-112,147r100,0","w":479},"\u00e9":{"d":"251,654r100,0r-112,-147r-55,0xm438,130r0,-86v-53,-35,-113,-53,-179,-53v-67,0,-120,24,-159,71v-39,47,-59,103,-59,168v0,68,20,123,59,165v39,42,89,63,151,63v61,0,109,-21,144,-63v34,-41,51,-103,51,-184r-316,0v14,-90,64,-135,151,-135v49,0,102,18,157,54xm132,270r226,0v-1,34,-11,61,-30,81v-19,20,-44,30,-75,30v-68,0,-108,-37,-121,-111","w":479},"\u00ea":{"d":"285,657r94,-151r-55,0r-87,87r-83,-87r-53,0r91,151r93,0xm438,130r0,-86v-53,-35,-113,-53,-179,-53v-67,0,-120,24,-159,71v-39,47,-59,103,-59,168v0,68,20,123,59,165v39,42,89,63,151,63v61,0,109,-21,144,-63v34,-41,51,-103,51,-184r-316,0v14,-90,64,-135,151,-135v49,0,102,18,157,54xm132,270r226,0v-1,34,-11,61,-30,81v-19,20,-44,30,-75,30v-68,0,-108,-37,-121,-111","w":479},"\u00eb":{"d":"333,628v13,0,24,-4,33,-13v9,-9,13,-20,13,-33v0,-13,-5,-25,-14,-34v-9,-9,-19,-13,-32,-13v-13,0,-24,5,-33,14v-9,9,-14,20,-14,33v0,13,5,24,14,33v9,9,20,13,33,13xm147,628v13,0,24,-4,33,-13v9,-9,13,-20,13,-33v0,-13,-5,-25,-14,-34v-9,-9,-19,-13,-32,-13v-13,0,-24,5,-33,14v-9,9,-14,20,-14,33v0,13,5,24,14,33v9,9,20,13,33,13xm438,130r0,-86v-53,-35,-113,-53,-179,-53v-67,0,-120,24,-159,71v-39,47,-59,103,-59,168v0,68,20,123,59,165v39,42,89,63,151,63v61,0,109,-21,144,-63v34,-41,51,-103,51,-184r-316,0v14,-90,64,-135,151,-135v49,0,102,18,157,54xm132,270r226,0v-1,34,-11,61,-30,81v-19,20,-44,30,-75,30v-68,0,-108,-37,-121,-111","w":479},"\u00ec":{"d":"154,449r0,-449r-89,0r0,449r89,0xm103,654r67,-147r-55,0r-112,147r100,0","w":219},"\u00ed":{"d":"154,449r0,-449r-89,0r0,449r89,0xm121,654r100,0r-112,-147r-55,0","w":219},"\u00ee":{"d":"155,657r94,-151r-55,0r-87,87r-83,-87r-53,0r91,151r93,0xm154,449r0,-449r-89,0r0,449r89,0","w":219},"\u00ef":{"d":"203,628v13,0,24,-4,33,-13v9,-9,13,-20,13,-33v0,-13,-5,-25,-14,-34v-9,-9,-19,-13,-32,-13v-13,0,-24,5,-33,14v-9,9,-14,20,-14,33v0,13,5,24,14,33v9,9,20,13,33,13xm17,628v13,0,24,-4,33,-13v9,-9,13,-20,13,-33v0,-13,-5,-25,-14,-34v-9,-9,-19,-13,-32,-13v-13,0,-24,5,-33,14v-9,9,-14,20,-14,33v0,13,5,24,14,33v9,9,20,13,33,13xm154,449r0,-449r-89,0r0,449r89,0","w":219},"\u00f0":{"d":"272,-378v-83,0,-145,65,-145,149v0,91,57,158,145,158v95,0,153,-62,153,-157v0,-86,-66,-150,-153,-150xm36,-229v0,-128,108,-229,237,-229v53,0,95,14,128,42r2,-2v-17,-43,-46,-87,-88,-130r-133,63r-28,-53r113,-53v-21,-15,-43,-29,-67,-40r61,-59v32,14,63,33,92,58r121,-58r28,53r-103,49v66,73,115,185,117,306v3,176,-78,289,-243,291v-135,2,-237,-102,-237,-238","w":563},"\u00f1":{"d":"359,643r38,0v0,-35,-7,-64,-22,-86v-15,-21,-34,-32,-57,-32v-19,0,-43,6,-72,18v-29,11,-52,17,-67,17v-19,0,-31,-12,-34,-35r-41,0v5,77,31,115,78,115v19,0,45,-6,79,-18v33,-11,54,-17,62,-17v20,0,32,13,36,38xm150,449r0,-59r2,0v36,45,81,68,134,68v45,0,81,-16,110,-47v29,-31,43,-75,43,-134r0,-277r-89,0r0,278v0,33,-8,60,-24,80v-16,19,-37,29,-64,29v-36,0,-73,-22,-112,-65r0,-322r-89,0r0,449r89,0"},"\u00f2":{"d":"273,458v71,0,129,-22,175,-65v45,-43,68,-97,68,-164v0,-71,-23,-128,-68,-172v-45,-44,-103,-66,-175,-66v-69,0,-125,22,-170,67v-45,45,-67,102,-67,171v0,65,23,119,69,163v45,44,101,66,168,66xm272,378v-42,0,-77,-14,-104,-42v-27,-28,-41,-64,-41,-107v0,-47,13,-86,40,-115v27,-29,62,-43,105,-43v47,0,85,14,112,42v27,28,41,66,41,115v0,43,-14,79,-43,108v-29,28,-65,42,-110,42xm270,654r67,-147r-55,0r-112,147r100,0","w":552},"\u00f3":{"d":"288,654r100,0r-112,-147r-55,0xm273,458v71,0,129,-22,175,-65v45,-43,68,-97,68,-164v0,-71,-23,-128,-68,-172v-45,-44,-103,-66,-175,-66v-69,0,-125,22,-170,67v-45,45,-67,102,-67,171v0,65,23,119,69,163v45,44,101,66,168,66xm272,378v-42,0,-77,-14,-104,-42v-27,-28,-41,-64,-41,-107v0,-47,13,-86,40,-115v27,-29,62,-43,105,-43v47,0,85,14,112,42v27,28,41,66,41,115v0,43,-14,79,-43,108v-29,28,-65,42,-110,42","w":552},"\u00f4":{"d":"322,657r94,-151r-55,0r-87,87r-83,-87r-53,0r91,151r93,0xm273,458v71,0,129,-22,175,-65v45,-43,68,-97,68,-164v0,-71,-23,-128,-68,-172v-45,-44,-103,-66,-175,-66v-69,0,-125,22,-170,67v-45,45,-67,102,-67,171v0,65,23,119,69,163v45,44,101,66,168,66xm272,378v-42,0,-77,-14,-104,-42v-27,-28,-41,-64,-41,-107v0,-47,13,-86,40,-115v27,-29,62,-43,105,-43v47,0,85,14,112,42v27,28,41,66,41,115v0,43,-14,79,-43,108v-29,28,-65,42,-110,42","w":552},"\u00f5":{"d":"385,643r38,0v0,-35,-7,-64,-22,-86v-15,-21,-34,-32,-57,-32v-19,0,-43,6,-72,18v-29,11,-52,17,-67,17v-19,0,-31,-12,-34,-35r-41,0v5,77,31,115,78,115v19,0,45,-6,79,-18v33,-11,54,-17,62,-17v20,0,32,13,36,38xm273,458v71,0,129,-22,175,-65v45,-43,68,-97,68,-164v0,-71,-23,-128,-68,-172v-45,-44,-103,-66,-175,-66v-69,0,-125,22,-170,67v-45,45,-67,102,-67,171v0,65,23,119,69,163v45,44,101,66,168,66xm272,378v-42,0,-77,-14,-104,-42v-27,-28,-41,-64,-41,-107v0,-47,13,-86,40,-115v27,-29,62,-43,105,-43v47,0,85,14,112,42v27,28,41,66,41,115v0,43,-14,79,-43,108v-29,28,-65,42,-110,42","w":552},"\u00f6":{"d":"184,628v13,0,24,-4,33,-13v9,-9,13,-20,13,-33v0,-13,-5,-25,-14,-34v-9,-9,-19,-13,-32,-13v-13,0,-25,5,-34,14v-9,9,-13,20,-13,33v0,13,5,24,14,33v9,9,20,13,33,13xm370,628v13,0,24,-4,33,-13v9,-9,13,-20,13,-33v0,-13,-5,-25,-14,-34v-9,-9,-19,-13,-32,-13v-13,0,-25,5,-34,14v-9,9,-13,20,-13,33v0,13,5,24,14,33v9,9,20,13,33,13xm273,458v71,0,129,-22,175,-65v45,-43,68,-97,68,-164v0,-71,-23,-128,-68,-172v-45,-44,-103,-66,-175,-66v-69,0,-125,22,-170,67v-45,45,-67,102,-67,171v0,65,23,119,69,163v45,44,101,66,168,66xm272,378v-42,0,-77,-14,-104,-42v-27,-28,-41,-64,-41,-107v0,-47,13,-86,40,-115v27,-29,62,-43,105,-43v47,0,85,14,112,42v27,28,41,66,41,115v0,43,-14,79,-43,108v-29,28,-65,42,-110,42","w":552},"\u00f7":{"d":"56,-394r472,0r0,82r-472,0r0,-82xm239,-206v0,-29,24,-53,53,-53v29,0,53,24,53,53v0,29,-24,53,-53,53v-29,0,-53,-24,-53,-53xm239,-500v0,-29,24,-53,53,-53v29,0,53,24,53,53v0,29,-24,53,-53,53v-29,0,-53,-24,-53,-53","w":584},"\u00f8":{"d":"272,-378v-83,-2,-147,65,-145,149v0,43,11,78,33,106r199,-232v-27,-15,-56,-23,-87,-23xm516,-229v0,140,-102,240,-243,238v-50,0,-95,-13,-135,-38r-56,66r-33,-30r55,-64v-45,-45,-68,-103,-68,-172v0,-128,108,-229,237,-229v57,0,103,13,140,39r47,-54r33,30r-44,51v45,45,67,99,67,163xm272,-71v95,1,154,-62,153,-157v0,-38,-11,-70,-33,-97r-199,232v23,15,50,22,79,22","w":552},"\u00f9":{"d":"437,0r-89,0r0,57v-19,-20,-40,-36,-64,-48v-24,-12,-47,-18,-69,-18v-47,0,-84,16,-113,48v-28,31,-42,75,-42,131r0,279r89,0r0,-285v0,-66,31,-99,92,-99v41,0,77,21,107,63r0,321r89,0r0,-449xm244,654r67,-147r-55,0r-112,147r100,0"},"\u00fa":{"d":"262,654r100,0r-112,-147r-55,0xm437,0r-89,0r0,57v-19,-20,-40,-36,-64,-48v-24,-12,-47,-18,-69,-18v-47,0,-84,16,-113,48v-28,31,-42,75,-42,131r0,279r89,0r0,-285v0,-66,31,-99,92,-99v41,0,77,21,107,63r0,321r89,0r0,-449"},"\u00fb":{"d":"296,657r94,-151r-55,0r-87,87r-83,-87r-53,0r91,151r93,0xm437,0r-89,0r0,57v-19,-20,-40,-36,-64,-48v-24,-12,-47,-18,-69,-18v-47,0,-84,16,-113,48v-28,31,-42,75,-42,131r0,279r89,0r0,-285v0,-66,31,-99,92,-99v41,0,77,21,107,63r0,321r89,0r0,-449"},"\u00fc":{"d":"158,628v13,0,24,-4,33,-13v9,-9,13,-20,13,-33v0,-13,-5,-25,-14,-34v-9,-9,-19,-13,-32,-13v-13,0,-25,5,-34,14v-9,9,-13,20,-13,33v0,13,5,24,14,33v9,9,20,13,33,13xm344,628v13,0,24,-4,33,-13v9,-9,13,-20,13,-33v0,-13,-5,-25,-14,-34v-9,-9,-19,-13,-32,-13v-13,0,-25,5,-34,14v-9,9,-13,20,-13,33v0,13,5,24,14,33v9,9,20,13,33,13xm437,0r-89,0r0,57v-19,-20,-40,-36,-64,-48v-24,-12,-47,-18,-69,-18v-47,0,-84,16,-113,48v-28,31,-42,75,-42,131r0,279r89,0r0,-285v0,-66,31,-99,92,-99v41,0,77,21,107,63r0,321r89,0r0,-449"},"\u00fd":{"d":"231,654r100,0r-112,-147r-55,0xm438,449r-318,-679r-99,0r153,326r-174,353r101,0r121,-253r116,253r100,0","w":438},"\u00fe":{"d":"464,-221v3,163,-157,279,-318,210r0,241r-89,0r0,-912r89,0r0,233r65,0v158,-1,250,75,253,228xm373,-222v0,-95,-51,-148,-146,-147r-81,0r0,278v28,13,56,20,84,20v82,2,143,-68,143,-151"},"\u00ff":{"d":"313,628v13,0,24,-4,33,-13v9,-9,13,-20,13,-33v0,-13,-5,-25,-14,-34v-9,-9,-19,-13,-32,-13v-13,0,-24,5,-33,14v-9,9,-14,20,-14,33v0,13,5,24,14,33v9,9,20,13,33,13xm127,628v13,0,24,-4,33,-13v9,-9,13,-20,13,-33v0,-13,-5,-25,-14,-34v-9,-9,-19,-13,-32,-13v-13,0,-24,5,-33,14v-9,9,-14,20,-14,33v0,13,5,24,14,33v9,9,20,13,33,13xm438,449r-318,-679r-99,0r153,326r-174,353r101,0r121,-253r116,253r100,0","w":438},"\u0131":{"d":"154,-449r0,449r-89,0r0,-449r89,0","w":219},"\u0141":{"d":"310,-536r0,88r-138,114r0,246r308,0r0,88r-406,0r0,-263r-89,73r0,-88r89,-73r0,-331r98,0r0,260","w":490},"\u0142":{"d":"233,-482r0,78r-79,64r0,340r-89,0r0,-276r-79,64r0,-78r79,-64r0,-328r89,0r0,264","w":219},"\u0152":{"d":"47,-340v0,-207,171,-342,386,-342r442,0r0,88r-279,0r0,205r269,0r0,88r-269,0r0,213r290,0r0,88r-444,0v-213,4,-395,-132,-395,-340xm148,-341v-2,147,131,260,282,256r68,0r0,-512r-57,0v-168,-5,-291,104,-293,256","w":917},"\u0153":{"d":"516,-243v-10,96,50,173,139,172v46,0,94,-19,143,-58r0,90v-44,30,-89,48,-162,48v-75,0,-130,-30,-167,-89v-48,59,-113,89,-195,89v-124,0,-239,-101,-239,-223v0,-142,103,-244,245,-244v79,0,142,31,189,93v37,-62,90,-93,161,-93v105,0,177,95,166,215r-280,0xm525,-302r183,0v-6,-51,-34,-76,-83,-76v-51,0,-84,25,-100,76xm423,-227v0,-80,-65,-151,-145,-151v-87,0,-152,72,-152,160v0,79,69,147,149,147v89,0,148,-67,148,-156","w":833},"\u0160":{"d":"275,287r-93,0r-91,151r53,0r83,-87r87,87r55,0xm399,643r0,-111v-50,47,-103,71,-160,71v-31,0,-57,-8,-78,-23v-20,-15,-30,-34,-30,-58v0,-20,7,-39,22,-56v15,-17,33,-32,55,-44v21,-11,45,-25,71,-41v25,-15,49,-31,71,-48v21,-16,39,-38,54,-65v15,-27,22,-58,22,-92v0,-53,-18,-98,-54,-133v-36,-35,-82,-52,-137,-52v-71,0,-135,21,-191,63r0,124v51,-66,111,-99,180,-99v35,0,63,9,82,27v19,18,29,38,29,59v0,26,-10,50,-31,72v-20,21,-44,40,-73,57r-87,52v-29,19,-53,42,-74,70v-20,27,-30,58,-30,93v0,55,19,100,57,133v37,33,87,49,150,49v53,0,104,-16,152,-48","w":458},"\u0161":{"d":"238,507r-93,0r-91,151r53,0r83,-87r87,87r55,0xm324,421r0,-88v-47,31,-91,47,-130,47v-18,0,-32,-4,-43,-12v-11,-7,-16,-17,-16,-29v0,-10,8,-22,25,-35v16,-13,44,-32,84,-55v37,-25,64,-46,79,-65v15,-18,22,-38,22,-61v0,-39,-14,-71,-42,-96v-28,-24,-63,-36,-106,-36v-51,0,-103,14,-156,41r0,96v57,-39,106,-59,147,-59v19,1,35,6,48,15v12,9,18,21,18,36v0,13,-11,28,-33,43v-22,15,-46,30,-72,43v-26,13,-50,31,-72,54v-22,23,-33,49,-33,76v0,38,13,68,40,90v27,21,63,32,108,32v41,0,85,-12,132,-37","w":385},"\u0178":{"d":"210,408v13,0,24,-4,33,-13v9,-9,13,-20,13,-33v0,-13,-5,-25,-14,-34v-9,-9,-19,-13,-32,-13v-13,0,-25,5,-34,14v-9,9,-13,20,-13,33v0,13,5,24,14,33v9,9,20,13,33,13xm396,408v13,0,24,-4,33,-13v9,-9,13,-20,13,-33v0,-13,-5,-25,-14,-34v-9,-9,-19,-13,-32,-13v-13,0,-25,5,-34,14v-9,9,-13,20,-13,33v0,13,5,24,14,33v9,9,20,13,33,13xm301,447r185,235r118,0r-253,-322r0,-360r-98,0r0,361r-253,321r118,0","w":604},"\u017d":{"d":"369,287r-93,0r-91,151r53,0r83,-87r87,87r55,0xm450,594r-407,0r0,88r588,0r-434,-594r434,0r0,-88r-615,0","w":646},"\u017e":{"d":"254,507r-93,0r-91,151r53,0r83,-87r87,87r55,0xm404,449r-239,-369r240,0r0,-80r-394,0r238,369r-228,0r0,80r383,0","w":417},"\u0192":{"d":"23,198r17,-76v71,17,120,24,133,-48r90,-524r-98,0r11,-68r99,0v11,-66,18,-150,59,-181v52,-40,117,-36,196,-11r-17,75v-38,-9,-64,-14,-78,-14v-65,-1,-56,76,-70,131r99,0r-12,68r-100,0r-93,533v-16,85,-40,125,-130,127v-31,0,-67,-4,-106,-12","w":552},"\u02c6":{"d":"212,-657r94,151r-55,0r-87,-87r-83,87r-53,0r91,-151r93,0","w":333},"\u02c7":{"d":"212,-507r-93,0r-91,-151r53,0r83,87r87,-87r55,0","w":333},"\u02d8":{"d":"308,-643v-13,75,-58,129,-140,129v-83,0,-130,-53,-143,-129r67,0v10,41,36,62,77,62v38,0,62,-21,71,-62r68,0","w":333},"\u02d9":{"d":"120,-582v0,-25,21,-46,47,-46v25,0,46,20,46,46v0,26,-21,47,-46,47v-25,0,-47,-21,-47,-47","w":333},"\u02da":{"d":"74,-598v0,-49,44,-93,93,-93v49,0,93,44,93,93v0,49,-44,93,-93,93v-49,0,-93,-44,-93,-93xm222,-598v0,-29,-26,-55,-55,-55v-29,0,-55,26,-55,55v0,29,26,55,55,55v29,0,55,-26,55,-55","w":333},"\u02db":{"d":"168,61v-1,25,25,47,51,46v5,0,20,-4,47,-11r0,67v-24,10,-48,15,-73,15v-56,1,-102,-39,-101,-94v0,-32,15,-63,44,-93r67,0v-23,29,-35,52,-35,70","w":333},"\u02dc":{"d":"98,-640v25,0,123,35,141,35v20,0,32,-13,36,-38r38,0v1,61,-26,115,-79,118v-32,2,-109,-35,-139,-35v-19,0,-31,12,-34,35r-41,0v5,-77,31,-115,78,-115","w":333},"\u02dd":{"d":"229,654r100,0r-112,-147r-55,0xm69,654r100,0r-112,-147r-55,0","w":333},"\u03bc":{"d":"275,-58v73,0,106,-61,105,-141r0,-250r89,0r0,449r-82,0r0,-53r-2,0v-39,80,-161,83,-207,8r-2,0r0,217r-89,0r0,-621r89,0r0,248v-1,81,29,143,99,143","w":552},"\u2000":{"w":455},"\u2001":{"w":911},"\u2002":{"w":455},"\u2003":{"w":911},"\u2004":{"w":303},"\u2005":{"w":227},"\u2006":{"w":151},"\u2007":{"w":151},"\u2008":{"w":113},"\u2009":{"w":182},"\u200a":{"w":50},"\u2010":{"d":"283,-267r0,93r-243,0r0,-93r243,0","w":323},"\u2011":{"d":"283,-267r0,93r-243,0r0,-93r243,0","w":323},"\u2013":{"d":"509,-285r0,64r-518,0r0,-64r518,0"},"\u2014":{"d":"1009,-285r0,64r-1018,0r0,-64r1018,0","w":1000},"\u2018":{"d":"113,-445v-80,-3,-80,-136,-37,-189v21,-26,47,-46,84,-57r0,19v-34,30,-42,50,-40,107v30,3,53,26,53,59v1,37,-25,62,-60,61","w":219},"\u2019":{"d":"106,-691v80,3,81,136,38,189v-21,26,-48,46,-85,57r0,-19v34,-30,42,-50,40,-107v-30,-3,-53,-26,-53,-59v-1,-37,25,-62,60,-61","w":219},"\u201a":{"d":"59,1005r0,19v19,16,30,32,35,48v5,15,6,35,5,59v-16,2,-29,8,-39,19v-9,11,-14,24,-14,40v0,19,6,34,17,45v11,11,26,16,43,16v20,0,36,-9,49,-27v12,-18,18,-40,18,-66v0,-37,-10,-70,-30,-97v-19,-27,-47,-45,-84,-56","w":219},"\u201c":{"d":"155,691r0,-19v-19,-16,-30,-32,-35,-48v-5,-15,-6,-35,-5,-59v16,-2,29,-8,39,-19v9,-11,14,-24,14,-40v0,-19,-6,-34,-17,-45v-11,-11,-26,-16,-43,-16v-20,0,-36,9,-49,27v-12,18,-18,40,-18,66v0,37,10,70,30,97v19,27,47,45,84,56xm373,691r0,-19v-19,-16,-30,-32,-35,-48v-5,-15,-6,-35,-5,-59v16,-2,29,-8,39,-19v9,-11,14,-24,14,-40v0,-19,-6,-34,-17,-45v-11,-11,-26,-16,-43,-16v-20,0,-36,9,-49,27v-12,18,-18,40,-18,66v0,37,10,70,30,97v19,27,47,45,84,56","w":427},"\u201d":{"d":"54,445r0,19v19,16,30,32,35,48v5,15,6,35,5,59v-16,2,-29,8,-39,19v-9,11,-14,24,-14,40v0,19,6,34,17,45v11,11,26,16,43,16v20,0,36,-9,49,-27v12,-18,18,-40,18,-66v0,-37,-10,-70,-30,-97v-19,-27,-47,-45,-84,-56xm272,445r0,19v19,16,30,32,35,48v5,15,6,35,5,59v-16,2,-29,8,-39,19v-9,11,-14,24,-14,40v0,19,6,34,17,45v11,11,26,16,43,16v20,0,36,-9,49,-27v12,-18,18,-40,18,-66v0,-37,-10,-70,-30,-97v-19,-27,-47,-45,-84,-56","w":427},"\u201e":{"d":"64,1005r0,19v19,16,30,32,35,48v5,15,6,35,5,59v-16,2,-29,8,-39,19v-9,11,-14,24,-14,40v0,19,6,34,17,45v11,11,26,16,43,16v20,0,36,-9,49,-27v12,-18,18,-40,18,-66v0,-37,-10,-70,-30,-97v-19,-27,-47,-45,-84,-56xm283,1005r0,19v19,16,30,32,35,48v5,15,6,35,5,59v-16,2,-29,8,-39,19v-9,11,-14,24,-14,40v0,19,6,34,17,45v11,11,26,16,43,16v20,0,36,-9,49,-27v12,-18,18,-40,18,-66v0,-37,-10,-70,-30,-97v-19,-27,-47,-45,-84,-56","w":427},"\u2020":{"d":"98,-350v-33,0,-71,-11,-71,-43v0,-31,24,-47,73,-47v35,0,77,9,125,26v-19,-89,-28,-149,-28,-182v0,-63,17,-95,52,-95v30,0,45,31,45,94v1,53,-22,138,-29,183v51,-17,93,-26,127,-26v32,0,71,14,71,44v1,31,-35,46,-67,46v-24,0,-68,-9,-132,-26v21,247,32,395,32,444v0,52,-5,92,-10,120v-10,53,-71,55,-84,8v-7,-23,-11,-59,-11,-109v0,-97,11,-251,34,-463v-53,17,-96,26,-127,26","w":490},"\u2021":{"d":"197,-608v0,-38,10,-83,47,-83v33,0,49,30,49,90v0,27,-10,82,-29,165v53,-19,97,-28,131,-28v45,0,68,16,68,47v1,30,-41,43,-72,43v-21,0,-64,-8,-127,-25v-1,25,16,142,16,167v0,27,-17,144,-16,171v25,-10,95,-26,128,-26v32,0,71,14,71,44v0,31,-23,46,-70,46v-36,0,-79,-9,-129,-28v19,70,29,124,29,163v0,61,-16,92,-48,92v-32,0,-48,-30,-48,-89v0,-38,10,-93,29,-166v-53,19,-97,28,-132,28v-45,0,-67,-15,-67,-46v0,-32,40,-44,73,-44v30,0,72,8,126,25v-1,-8,-5,-37,-9,-86v-10,-115,-10,-71,1,-170v5,-40,8,-67,8,-81v-56,17,-99,25,-128,25v-32,0,-71,-13,-71,-43v1,-79,158,-38,200,-18v-13,-37,-30,-126,-30,-173","w":490},"\u2022":{"d":"53,-341v0,-66,58,-124,124,-124v66,0,124,58,124,124v0,66,-58,124,-124,124v-66,0,-124,-58,-124,-124","w":354},"\u2026":{"d":"834,111v17,0,31,-6,43,-18v11,-11,17,-25,17,-42v0,-17,-6,-31,-18,-43v-11,-11,-25,-17,-42,-17v-17,0,-31,6,-43,18v-11,11,-17,25,-17,42v0,17,6,31,18,43v11,11,25,17,42,17xm500,111v17,0,31,-6,43,-18v11,-11,17,-25,17,-42v0,-17,-6,-31,-18,-43v-11,-11,-25,-17,-42,-17v-17,0,-31,6,-43,18v-11,11,-17,25,-17,42v0,17,6,31,18,43v11,11,25,17,42,17xm166,111v17,0,31,-6,43,-18v11,-11,17,-25,17,-42v0,-17,-6,-31,-18,-43v-11,-11,-25,-17,-42,-17v-17,0,-31,6,-43,18v-11,11,-17,25,-17,42v0,17,6,31,18,43v11,11,25,17,42,17","w":1000},"\u202f":{"w":182},"\u2030":{"d":"924,-143v0,-42,-37,-79,-79,-79v-41,0,-79,38,-79,79v0,42,37,79,79,79v43,0,79,-36,79,-79xm692,-143v0,-82,71,-153,153,-153v81,0,153,72,153,153v0,81,-72,153,-153,153v-82,0,-153,-70,-153,-153xm585,-691r-449,701r-75,0r449,-701r75,0xm329,-143v0,-82,71,-153,153,-153v81,0,153,72,153,153v0,81,-72,153,-153,153v-82,0,-153,-70,-153,-153xm561,-143v0,-42,-37,-79,-79,-79v-41,0,-79,38,-79,79v0,42,37,79,79,79v43,0,79,-36,79,-79xm13,-537v0,-82,71,-153,153,-153v81,0,153,72,153,153v0,81,-72,153,-153,153v-82,0,-153,-70,-153,-153xm245,-537v0,-42,-37,-79,-79,-79v-41,0,-79,38,-79,79v0,42,37,79,79,79v43,0,79,-36,79,-79","w":1010},"\u2039":{"d":"123,-225r148,225r-88,0r-147,-225r147,-225r88,0","w":313},"\u203a":{"d":"190,-225r-148,-225r88,0r147,225r-147,225r-88,0","w":313},"\u2044":{"d":"360,-691r-455,718r-67,0r455,-718r67,0","w":198},"\u205f":{"w":227},"\u20ac":{"d":"110,-444v31,-129,128,-248,284,-247v50,0,107,11,171,33r-19,93v-158,-68,-290,-46,-338,121r290,0r-14,76r-288,0v-1,15,-1,33,0,54r278,0r-14,76r-252,0v29,105,91,157,184,157v57,0,113,-22,169,-67r0,107v-72,51,-183,66,-275,33v-101,-37,-154,-120,-179,-230r-79,0r14,-76r56,0v-1,-13,0,-31,1,-54r-71,0r13,-76r69,0","w":610},"\u2122":{"d":"239,-318r0,-339r-129,0r0,-59r325,0r0,59r-130,0r0,339r-66,0xm480,-318r0,-398r98,0r99,318r2,0r96,-318r96,0r0,398r-61,0r0,-334r-2,0r-100,334r-60,0r-105,-339r-2,0r0,339r-61,0","w":1000},"\u2212":{"d":"56,-394r472,0r0,82r-472,0r0,-82","w":584},"\ufb01":{"d":"438,-449r0,449r-89,0r0,-449r89,0xm80,-449v-3,-149,54,-240,190,-242v95,-2,166,54,168,143r-89,0v-15,-42,-42,-63,-81,-63v-73,0,-106,54,-99,162r100,0r0,75r-100,0r0,374r-89,0r0,-374r-67,0r0,-75r67,0"},"\ufb02":{"d":"436,-682r0,682r-89,0r0,-682r89,0xm303,-682r0,82v-9,-7,-22,-11,-39,-11v-65,0,-97,39,-97,116r0,46r100,0r0,75r-100,0r0,374r-89,0r0,-374r-69,0r0,-75r69,0v-3,-94,12,-154,58,-198v44,-43,99,-55,167,-35"},"\ufffd":{"w":278}}});
